encog,BasicNetwork,java,3.4.0,1,1529906401376
[BASIC]
[BASIC:PARAMS]
[BASIC:NETWORK]
beginTraining=0
connectionLimit=0
contextTargetOffset=0,0,0
contextTargetSize=0,0,0
endTraining=2
hasContext=f
inputCount=2
layerCounts=2,101,3
layerFeedCounts=1,100,2
layerContextCount=0,0,0
layerIndex=0,2,103
output=0.3710194619,1,0.784579749,0.7593469727,0.6613367042,0.4080495682,0.8395487105,0.3639703559,0.2528231692,0.4419832621,0.7166335013,0.1765991872,0.8177748678,0.2792610049,0.627235236,0.3603515756,0.308094758,0.1344949924,0.2422525321,0.6998984641,0.2455880698,0.7850416963,0.3980204284,0.316863987,0.2514024612,0.3443046446,0.189245967,0.012991184,0.8152776693,0.5909123208,0.5699329789,0.3212121031,0.4931193582,0.2901341756,0.3715672259,0.203203294,0.6063550105,0.7261965856,0.5691518226,0.662780286,0.4446629886,0.4096757786,0.4807926169,0.5294293748,0.597385905,0.3298399236,0.2300141663,0.5269114229,0.4235501852,0.5191655286,0.613636609,0.3697774175,0.5489222606,0.3215520436,0.2506934169,0.5719902699,0.5903648123,0.2516689574,0.4923951345,0.1418256725,0.2466582698,0.6428268456,0.5657770702,0.2230916626,0.2050629283,0.3278410393,0.1786903709,0.8233839925,0.2312715806,0.7250575748,0.6524121938,0.4026569132,0.8830662904,0.8425382391,0.3566675685,0.8378019145,0.6987707234,0.3008958843,0.8588951561,0.1847898812,0.8592821183,0.275890481,0.1574756797,0.3870798896,0.6312959122,0.7584091195,0.6523386921,0.1964396739,0.7776706882,0.30382948,0.8386960918,0.3332632624,0.3778099883,0.2109925871,0.774036542,0.6783320897,0.1610511631,0.337524034,0.7921189174,0.2336761014,0.708741147,0.4498295709,1,0.9676254465,0.0003284846,1
outputCount=1
weightIndex=0,101,401
weights=-0.7809348642,-0.2680623555,-0.534568912,0.8776996892,-0.3916242648,0.8487878444,0.1499276476,-0.6941813538,-0.7412752601,1.33052456,0.9717525688,0.1347242512,-0.3898233476,0.7922949367,-0.6627949032,2.0470684717,0.5800183468,-0.9652703292,0.1311240798,0.222307895,0.4925014938,0.5501247677,1.0145491485,1.2266347495,0.6803146801,-20.4935033074,-0.2983740174,-0.5155388946,-0.2867827219,0.2863531647,0.2278835128,1.116533784,0.6555395302,0.7664124,-0.0761684726,-0.853978499,-0.783005912,-0.5614159314,-0.1453381326,0.2038112456,0.4570351002,-0.1103084936,-0.8261203032,0.1698577116,0.3022676937,-0.8548130139,0.3333094971,-0.1717849762,-0.9736729763,0.7310396704,-0.1270275872,0.7815613315,0.8470308401,-0.4925533107,-2.2192640266,0.2788549073,-0.7024275688,0.3434210888,0.3569139752,-0.4671836575,-0.2560402115,1.4012172032,1.0546037265,0.9947115963,-0.6220017635,-0.0827658542,0.3513541504,-0.2351496793,0.8297220413,0.8498853433,-0.5213615146,-0.7470877678,3.326029118,-0.7778172588,-0.4970124543,1.4169708598,-0.7849124464,0.8429791225,-0.3303012198,0.4270139572,0.6154036285,0.6812871243,-0.8598189739,-0.6337670137,-0.0761839927,-0.1288416546,0.3773877697,1.1435849269,-0.7698005474,0.3057006074,0.4085857291,0.9620204174,-0.7615719045,-0.3225003146,1.0217125047,8.6616412886,-0.3256462087,0.7377799556,-0.2204481321,0.8535457093,0.8576902641,0.632177718,0.3574606805,0.6807287797,0.9643258552,0.3360771323,0.2158860096,0.3203768244,0.0865354817,0.3592235169,-0.1875629543,-0.0317866225,-0.1905331148,1.0591983296,0.6601254562,0.629749996,-1.0166734248,-0.4409332869,0.4257311682,-0.3690333721,0.1627615387,-0.7265789531,0.7218802375,1.4988713896,-0.9321189886,0.5079844552,0.3605271933,0.4361663328,-0.9802883658,-0.3720490382,-0.590886231,0.777875613,-7.7399412128,0.7511943769,-0.2697883434,0.0211568434,-0.6870831051,0.8160916151,0.7134123164,-0.2695312723,-0.9954944968,-0.2617549342,0.3895132546,-0.4536931041,-0.0958824776,-0.3700051329,-0.9817565814,-0.4820823518,-0.9116551859,-0.3822219141,-0.068784684,-0.7704992261,0.9157905418,0.2620746987,-0.0394139167,-0.8291331557,-0.0949049051,-0.319961411,0.9524534183,0.5414329147,0.3734967432,-0.1945658778,-0.3223618621,-0.2253473936,-1.4480003419,-0.3641742398,0.6330202414,-1.3628707532,-0.6105836355,0.2278025665,-0.5010897629,0.1749255218,-0.1593596782,-0.9446872388,-0.3599272245,-0.5406954963,-3.9560243971,4.304030565,-0.5038719321,0.9484408974,0.3472552179,0.5668253566,0.8533346468,0.6713485876,-0.4581907046,0.9334494046,0.6566800297,-0.6218673927,-1.5702147122,-0.2013339542,0.7712388061,0.163568159,0.9555213502,-0.1861108915,-0.8504966397,-0.6994844154,-0.0715405212,-0.5580274615,-0.263033252,0.0145487198,-0.9827056435,-0.4017962192,-0.4153696751,1.2345131131,1.007517223,-0.762861077,0.7178718638,0.025254108,0.2807709955,1.1971311293,0.4814001189,-0.8801412254,1.6630950874,-0.036916326,-0.9335321469,0.07076361,0.35177986,-0.290846715,-0.8723784402,-0.2277241283,0.4789045307,-0.7578425541,-1.4095802854,0.656903407,0.6735415558,1.0473560025,-0.5342262684,0.6562948812,-0.4167149003,-0.2403259541,-0.4202512942,-0.4654382085,-0.3021104118,-0.252388135,0.2020113475,-0.964080393,0.6451419617,-0.6621140331,-0.5162884656,-1.1120957636,-0.093701403,0.767906663,0.4959174063,-0.364807894,-0.4030427748,0.3744944323,0.4852327869,0.1000948232,-0.1917199247,-0.2486088628,-0.3475770701,0.7496216407,1.0145713122,-0.5293691121,-0.0852406092,-0.0369189726,-0.6641552548,-0.8804731167,-0.1533771515,-0.2428989023,1.1972869551,0.3412559642,-0.8686613703,2.7061347248,-7.0119775453,-2.2507478008,-0.9457090901,-0.1875171507,-0.1745771105,0.4127250366,-0.6891126666,-0.4295586931,-0.9164796846,-0.5155737876,-0.9132301911,-0.6383921851,-0.5599267498,-0.4986066437,1.4594883509,0.0207898465,-0.8245901902,0.1833559733,-1.2172077468,0.0876219948,-0.701499241,-0.5253480819,-0.5687785584,-1.0090142454,-0.4126154983,-0.3784626598,-1.4835772726,-0.6438408433,0.7177926061,-0.7337278754,2.8203638839,-0.8161983215,0.9252494783,0.3862491652,0.6440229248,-0.5321926554,-0.4915534037,-0.6860204294,0.6012132083,-0.0838336835,0.3879676913,0.8431917794,0.3924132957,-0.1863634754,-0.7121266485,0.5273053779,0.2944918887,2.2404903681,4.5850908127,-0.1476685423,0.8951124296,0.3256613461,0.8109958691,-0.9977726242,-0.0169711879,0.3756183316,0.9542749102,0.4187778915,0.7184451071,0.7151674595,0.0980736795,0.1494045428,-1.3651938643,-0.5893655852,0.4781545449,0.9974200739,0.5879459801,0.840821498,-0.713765217,-0.1114880345,-0.7935324835,1.0398103685,0.6378686031,0.8029837455,-0.5383378871,0.3483436487,-0.4441436583,-0.855646572,-0.5051781431,-0.8490201576,-1.4561650578,-0.5272120073,0.949592048,1.097180279,0.8906745567,-0.5241718123,1.0513649294,0.2790054333,0.1265581483,1.6820196892,0.9153404556,-0.9985305871,-0.5706310479,-0.4123534899,-0.8564043059,0.5220330812,0.5229337064,0.7468392167,-0.9496006303,-0.5031570354,0.0898950059,0.920578917,0.7988212729,0.7575202136,-0.8373189867,-0.4178642285,0.1168859041,-0.6317918925,0.6392856688,0.1122737784,-0.85586668,-0.2384243629,-0.4907160182,0.7959267839,0.6848379023,0.4608618199,1.744842672,0.3522626429,-0.9423525856,-0.9099783715,-0.3153266,-0.7698058178,-2.2025811786,-0.4507913052,1.4570741146,0.4403251121,0.307823655,0.9115744325,-0.339586328,-0.1871605438,-0.8590150987,0.6861596093,0.3166208877,0.2252284595,-1.2809221728,-0.4275312571,1.0382340052
biasActivation=1,1,1
[BASIC:ACTIVATION]
"org.encog.engine.network.activation.ActivationSigmoid"
"org.encog.engine.network.activation.ActivationSigmoid"
"org.encog.engine.network.activation.ActivationLinear"
