encog,BasicNetwork,java,3.0.1,1,1369169083944
[BASIC]
[BASIC:PARAMS]
[BASIC:NETWORK]
beginTraining=0
connectionLimit=0
contextTargetOffset=0,0,0
contextTargetSize=0,0,0
endTraining=2
hasContext=f
inputCount=5
layerCounts=1,21,6
layerFeedCounts=1,20,5
layerContextCount=0,0,0
layerIndex=0,1,22
output=-0.5141675726727222,0.9693145878896817,0.5328611019449658,0.9451704807400678,0.9108426171934626,0.9258082012471921,0.6760871671686062,0.7047554218897679,0.9239993251094404,0.09220717106105222,0.16753303768850827,0.8092160555022172,0.2091605090477884,0.1867321255433705,0.9822542374852137,0.3298170783253708,0.5724125263160185,0.14689382493495837,0.6137369574893595,0.9784326116434066,0.19266299976003406,1,-0.9443714285714285,0.10465714285714285,0.8856285714285714,-0.9670857142857143,0.48806451612903223,1
outputCount=1
weightIndex=0,21,141
weights=4.483646603692605,1.592849258160175,-0.4110344819360891,-0.4634365458231435,-0.2750039648680992,0.021774378638610047,0.3809780678924401,-3.0658725303264385,-0.5897387935170473,-0.4646674971791845,-1.3352466410629762,6.07469041093989,-2.866728891449907,-2.6355974860534923,2.155233919668361,0.49506576659953333,-2.2323249225423645,1.301773733168888,-0.031401451887368925,-2.674654624334448,0.052928355619517045,0.05745891479754791,0.18848965894005842,0.2112009685728427,-0.40203570825692425,1.6881404587287856,2.087567555177728,0.07681800069281075,0.35556694071470996,-0.3537678850426517,0.4738851956240162,-0.7225154049567221,1.2911949397976463,-1.2254319308161508,-0.1375206370637374,2.01574917759411,0.11795408333330783,-0.2460538358277176,0.15322299715854878,-0.07771311512381765,-0.7365990865969763,0.0826220589623875,-0.681352941790987,1.8604202841742248,0.6875630019051071,-0.12504168581297204,-0.5533684380629486,1.337700272428626,-0.23723454336819563,0.5707246168791031,0.7711594831187341,-1.7228689962734098,0.3204036708780815,0.1375083201712328,0.4419111762479188,0.061701026051200765,-0.6492426129309221,0.049700263808142776,-0.6426298714862378,0.13261488142072136,-0.3747019288865554,-0.8003317269340824,0.8950351540543441,0.07218288921719598,-0.024852316719015638,0.3582514624517245,-0.034117811155818474,-1.1704228666977545,2.7897068429505714,0.897486037123713,0.17483736486677326,-1.6588954291083444,-0.10918031679916376,0.33103800490174323,-0.25570553321392275,0.006629049390660386,-0.8358636132698076,-0.55757607724599,0.7966082236025271,-0.5648573354978375,0.03040697783178274,0.04594684565830626,0.4121876628108337,0.5607196530527083,-0.8478662272066051,-0.07539570351676719,0.16542615061686938,-0.014710637542865838,-0.14765250570152516,0.2632465251020421,-0.26396154640005326,-1.3089557303270716,-1.1779897407940991,0.059792231908017836,0.04341495472088959,-0.3010983733833596,0.20193747017364666,-1.3458270103686785,-0.3006604741932459,0.0220627020217606,0.20687511539519737,0.5059732192631983,-0.9183352709076162,-0.7381315279676254,3.0369303898112543,0.11287989346442157,0.1444376868091874,-0.4446033679122378,-0.708234480918243,1.041492907640361,-1.4170141245551142,-0.07303884414488573,0.39988592055257677,-1.4306318939229508,0.22438915807194632,-0.1622954077229593,1.7440969908502877,0.07843049366513127,0.10152072189066812,0.42322126374079877,-0.7428605760963468,1.4644399524305207,-3.5036991880013195,-0.12447120083936412,-0.08688993149553358,0.3959344954063277,1.0383621570388282,-1.04021963902038,1.5158230414849856,-0.30688829665137446,3.0502161149784963,0.032531282368033224,-3.3481152195708512,0.4955947814432162,-0.30288116183875785,-0.09522329117321472,-0.03562025503063235,0.07396838831077154,-0.25532538232603663,0.7383684114486523,-2.1917983406675488
biasActivation=0,1,1
[BASIC:ACTIVATION]
"ActivationLinear"
"ActivationSigmoid"
"ActivationLinear"
