encog,BasicNetwork,java,3.0.1,1,1369168692522
[BASIC]
[BASIC:PARAMS]
[BASIC:NETWORK]
beginTraining=0
connectionLimit=0
contextTargetOffset=0,0,0
contextTargetSize=0,0,0
endTraining=2
hasContext=f
inputCount=5
layerCounts=1,21,6
layerFeedCounts=1,20,5
layerContextCount=0,0,0
layerIndex=0,1,22
output=-0.006882682589946398,0.00003625186570681347,0.9999660175202125,0.0423069948890581,0.9218802063871729,0.989387041724423,0.9202197095157101,0.04219468300921492,0.02117015446703734,0.00003188018522892616,0.9457281503249114,0.9643081431263816,0.987105956360226,0.9610921598035784,0.023099592783445474,0.9847746659498573,0.9400361502204909,0.9826875253944599,0.011465052879929197,0.9899317906584699,0.0000375533164391869,1,-0.9443714285714285,0.10465714285714285,0.8856285714285714,-0.9670857142857143,0.48806451612903223,1
outputCount=1
weightIndex=0,21,141
weights=-36.10324150054549,28.807883042683795,-5.193189266985639,-35.790005704172806,4.965965277648083,25.36521532878148,5.162422331639817,-81.5838188428757,28.28136478449848,-36.67711017728648,27.90784733899221,-70.3150780438528,-14.296551915326564,122.66311829686693,-32.930816053655136,47.00687905305893,93.18398924054,-37.382657977409984,-4.7864081497116535,36.53495751379927,-32.41904793953394,-0.21374861605662746,0.25505818228113697,-3.641589620262964,3.9717341808703996,4.028889222253074,-5.353789872625247,0.2130021511469043,-0.24142912560869031,4.076416311482575,-3.5607016795188864,-3.6762350232808343,5.256597297962027,-0.03190253155638477,0.46508414688937966,-6.851527184060953,6.765683407000159,-10.21258943290248,14.396929468634472,0.1804329895652742,-0.2508637262178178,1.3343795652590758,-1.5268020798315267,-0.0032044606703631974,0.008073099464071155,1.6983934082734007,-0.8067926719458154,0.8510955183133633,-3.505167553947471,0.5080877690260502,1.8318291066728107,0.1770630829465118,-0.24223375628402122,1.512640583906185,-1.359410848798793,-0.15860852052236815,0.06100743780554056,-0.02889273076947015,0.47929302181474237,-7.000181826504388,6.645766705592579,-10.252795539137736,14.430815537208947,-0.12298626544189668,0.1385935014539111,-2.752630560179968,2.9751423927749006,-2.877398519094817,2.7549671361230708,-0.2094260899430331,0.25232348446786335,-3.601485079466417,4.028658645982545,3.6847493240853657,-5.290436569577355,0.21810687239979706,-0.30319231069355795,1.4593478583602697,-1.369102642269502,0.4657442413518305,0.25186162601094825,0.12381140101228012,-0.14606939635925148,2.7138841376794014,-2.440006993891689,4.146115059445846,-3.358061393309741,0.13957311983446077,-0.16016986036994907,3.0627746552957755,-3.6319000157781938,1.6194842509425722,-2.5286684601169127,0.15086962440325744,-0.139102672849526,2.329433498046229,-2.669686423706078,4.454054931962189,-3.4547850507619335,-0.11457692442473848,0.14498045206931476,-2.9820901684644205,2.718245468516848,-2.9327234316460884,2.8332127246610472,0.13074604608762078,-0.15998425796858468,3.7243670518033434,-3.0302467332520053,1.3171576878091569,-2.5621037067376906,0.2056610381365793,-0.2948114800479327,1.3306228787637746,-1.4714200507083193,0.4539653658028399,0.1542596542235833,0.12292072002268147,-0.1559696284514946,3.426357038365807,-2.9190383297110074,2.022710201422374,-2.673383007325623,-0.1454898186389962,0.1680618804723551,-3.1443269276347694,3.856040337844528,-1.1157936465349476,2.446500804474392,1.7151155243056895,-0.8254341933360559,0.8196329847878545,-3.5814532756409174,0.531358856182148,1.845546763054953,-0.2174742533442175,0.24620387810261882,-4.021629845000558,3.607655295766644,4.028659667741751,-5.33651841310529
biasActivation=0,1,1
[BASIC:ACTIVATION]
"ActivationLinear"
"ActivationSigmoid"
"ActivationLinear"
