encog,BasicNetwork,java,3.0.1,1,1369185943976
[BASIC]
[BASIC:PARAMS]
[BASIC:NETWORK]
beginTraining=0
connectionLimit=0
contextTargetOffset=0,0,0
contextTargetSize=0,0,0
endTraining=2
hasContext=f
inputCount=5
layerCounts=1,21,6
layerFeedCounts=1,20,5
layerContextCount=0,0,0
layerIndex=0,1,22
output=-0.02287969983015614,0.011622023140602991,0.9600334407596348,0.9860332608458341,0.025566427753390828,0.9990152724670107,0.001147933481018677,0.8182626118463452,0.4300230439759616,0.0006507503842777643,0.0018890664130265158,0.9961674084412931,0.010437678168604575,0.0001124328033938455,0.9994818911955347,0.17920138328124727,0.03310235640661324,0.9918861916685613,0.00000000694438690177,0.9944260043106685,0.9889575666584213,1,-0.9443714285714285,0.10465714285714285,0.8856285714285714,-0.9670857142857143,0.48806451612903223,1
outputCount=1
weightIndex=0,21,141
weights=-59.03788211928955,-31.917034568151045,31.696942690967575,21.903007028117663,50.79735946776487,90.6357401891584,-37.177032953386714,-1.634705294242539,-69.51868042833887,78.9590370834611,116.11795329257399,102.4478942576026,-0.030632100337274034,-28.45025039584363,-37.679216927394904,-53.77076094413652,58.27689757322215,-0.34473362736304813,-14.325073706599975,-71.99940691501536,-72.4703896697358,-0.1618749488341587,0.19192916821711048,-3.4225522053614705,3.5096807132944425,-1.414530818532315,2.499534216740023,0.14940866322780308,-0.05869247159381184,1.064216865287282,-1.2744735613657439,3.5745948701195878,-0.5934940605353188,0.1342751188221498,-0.15316297306240675,2.4222346030622908,-1.8704850195817013,-0.4991805328551192,0.6893593366278393,-0.15941722358186888,0.08287055252595041,-1.3703048370231699,1.2904674086631756,-3.1333476484396776,0.19105117268227242,0.17506851835726076,-0.20828753042613785,3.731642673320077,-3.008310393055053,-1.59906311451127,1.6755914333510562,-0.19900826671923852,0.24701998365721545,-2.848537306858698,3.7335681783545374,2.4765652655531016,-2.05773061378457,0.18689379934400813,0.24796005949879338,1.2460966013351142,0.23509529985024571,5.281765318144063,-1.7988967046932185,-0.10025349655312343,-0.03636604440422161,0.33706057788551474,0.6667677105071576,-0.31598797267420886,0.1279058609419609,-0.25689409929588597,0.2962497859469433,-3.012571602160627,4.21215520643459,3.5627541174386708,-2.607660818642774,-0.16005746380940303,0.1907135418122222,-3.370731805083868,2.711806712941923,1.2247749744653111,-1.4308981905873486,0.14989516990200477,-0.19171416219868292,2.380503598700206,-2.976355819879908,-1.212699817539465,1.3272376290929548,-0.1683202039389003,0.19640431402368297,-3.6229372679125813,3.4570105971920193,-1.6694140809967328,2.6352316033578402,3.4092777591172148,-0.4494726670525291,-6.128466889478755,0.34395653148800714,0.13454611252931414,-0.13186370491233892,0.29531765429296664,-0.32402997768692987,3.053728792884839,-4.432340069159753,-4.1523901510940195,2.9133207139530906,-0.1859630325320249,-0.2449169464099815,-1.2485225366899055,-0.227086545490273,-5.295024849263141,1.7986753812000713,-0.1525117486392108,0.07072140663777142,-1.1762436799561307,1.306119316342099,-3.3541753362236753,0.415980896078994,0.17979754377141455,-0.2087078156136097,3.811042358011289,-3.5787991514080795,2.202922010101116,-2.9136621387800017,-0.4980012672735608,0.5359507644232862,-9.317982422603889,6.559216634096033,8.143380015324539,-8.690620042265353,0.19160792266880852,-0.2273356599259581,3.7637636385850914,-4.063347986811273,2.844698311699136,-3.2625038264876465,0.13184738003655216,-0.1645524206053011,1.9534621813596587,-2.4602084575794603,-0.6298484995339658,0.8347728109472192
biasActivation=0,1,1
[BASIC:ACTIVATION]
"ActivationLinear"
"ActivationSigmoid"
"ActivationLinear"
